digraph Tree {
node [shape=box, fontname="helvetica"] ;
edge [fontname="helvetica"] ;
0 [label="age_group_65+ years <= 0.5\ngini = 0.376\nsamples = 27999\nvalue = [20985, 7014]"] ;
1 [label="hosp_yn_Yes <= 0.5\ngini = 0.086\nsamples = 19292\nvalue = [18426, 866]"] ;
0 -> 1 [labeldistance=2.5, labelangle=45, headlabel="True"] ;
2 [label="res_state_CA <= 0.5\ngini = 0.03\nsamples = 18310\nvalue = [18035, 275]"] ;
1 -> 2 ;
3 [label="res_state_IL <= 0.5\ngini = 0.024\nsamples = 18261\nvalue = [18035, 226]"] ;
2 -> 3 ;
4 [label="gini = 0.021\nsamples = 18230\nvalue = [18034, 196]"] ;
3 -> 4 ;
5 [label="gini = 0.062\nsamples = 31\nvalue = [1, 30]"] ;
3 -> 5 ;
6 [label="gini = 0.0\nsamples = 49\nvalue = [0, 49]"] ;
2 -> 6 ;
7 [label="age_group_50 to 64 years <= 0.5\ngini = 0.479\nsamples = 982\nvalue = [391, 591]"] ;
1 -> 7 ;
8 [label="icu_yn_Yes <= 0.5\ngini = 0.421\nsamples = 332\nvalue = [232, 100]"] ;
7 -> 8 ;
9 [label="gini = 0.341\nsamples = 293\nvalue = [229, 64]"] ;
8 -> 9 ;
10 [label="gini = 0.142\nsamples = 39\nvalue = [3, 36]"] ;
8 -> 10 ;
11 [label="county_fips_code <= 17540.0\ngini = 0.37\nsamples = 650\nvalue = [159, 491]"] ;
7 -> 11 ;
12 [label="gini = 0.12\nsamples = 312\nvalue = [20, 292]"] ;
11 -> 12 ;
13 [label="gini = 0.484\nsamples = 338\nvalue = [139, 199]"] ;
11 -> 13 ;
14 [label="hosp_yn_No <= 0.5\ngini = 0.415\nsamples = 8707\nvalue = [2559, 6148]"] ;
0 -> 14 [labeldistance=2.5, labelangle=-45, headlabel="False"] ;
15 [label="res_state_NC <= 0.5\ngini = 0.291\nsamples = 6396\nvalue = [1131, 5265]"] ;
14 -> 15 ;
16 [label="hosp_yn_Missing <= 0.5\ngini = 0.256\nsamples = 6124\nvalue = [925, 5199]"] ;
15 -> 16 ;
17 [label="gini = 0.157\nsamples = 4385\nvalue = [377, 4008]"] ;
16 -> 17 ;
18 [label="gini = 0.432\nsamples = 1739\nvalue = [548, 1191]"] ;
16 -> 18 ;
19 [label="hosp_yn_Yes <= 0.5\ngini = 0.368\nsamples = 272\nvalue = [206, 66]"] ;
15 -> 19 ;
20 [label="gini = 0.159\nsamples = 206\nvalue = [188, 18]"] ;
19 -> 20 ;
21 [label="gini = 0.397\nsamples = 66\nvalue = [18, 48]"] ;
19 -> 21 ;
22 [label="res_state_CA <= 0.5\ngini = 0.472\nsamples = 2311\nvalue = [1428, 883]"] ;
14 -> 22 ;
23 [label="county_fips_code <= 18004.0\ngini = 0.453\nsamples = 2185\nvalue = [1428, 757]"] ;
22 -> 23 ;
24 [label="gini = 0.5\nsamples = 682\nvalue = [346, 336]"] ;
23 -> 24 ;
25 [label="gini = 0.403\nsamples = 1503\nvalue = [1082, 421]"] ;
23 -> 25 ;
26 [label="gini = 0.0\nsamples = 126\nvalue = [0, 126]"] ;
22 -> 26 ;
}