digraph Tree {
node [shape=box, fontname="helvetica"] ;
edge [fontname="helvetica"] ;
0 [label="age_group_65+ years <= 0.5\ngini = 0.376\nsamples = 27999\nvalue = [20985, 7014]"] ;
1 [label="hosp_yn_Yes <= 0.5\ngini = 0.086\nsamples = 19292\nvalue = [18426, 866]"] ;
0 -> 1 [labeldistance=2.5, labelangle=45, headlabel="True"] ;
2 [label="res_state_CA <= 0.5\ngini = 0.03\nsamples = 18310\nvalue = [18035, 275]"] ;
1 -> 2 ;
3 [label="res_state_IL <= 0.5\ngini = 0.024\nsamples = 18261\nvalue = [18035, 226]"] ;
2 -> 3 ;
4 [label="res_state_MO <= 0.5\ngini = 0.021\nsamples = 18230\nvalue = [18034, 196]"] ;
3 -> 4 ;
5 [label="county_fips_code_36005.0 <= 0.5\ngini = 0.02\nsamples = 18221\nvalue = [18034, 187]"] ;
4 -> 5 ;
6 [label="age_group_50 to 64 years <= 0.5\ngini = 0.02\nsamples = 18214\nvalue = [18033, 181]"] ;
5 -> 6 ;
7 [label="case_month_2020-01-01 00:00:00 <= 0.5\ngini = 0.005\nsamples = 14394\nvalue = [14360, 34]"] ;
6 -> 7 ;
8 [label="res_state_PR <= 0.5\ngini = 0.004\nsamples = 14391\nvalue = [14359, 32]"] ;
7 -> 8 ;
9 [label="res_state_CT <= 0.5\ngini = 0.004\nsamples = 14390\nvalue = [14359, 31]"] ;
8 -> 9 ;
10 [label="gini = 0.004\nsamples = 14381\nvalue = [14353, 28]"] ;
9 -> 10 ;
11 [label="gini = 0.444\nsamples = 9\nvalue = [6, 3]"] ;
9 -> 11 ;
12 [label="gini = 0.0\nsamples = 1\nvalue = [0, 1]"] ;
8 -> 12 ;
13 [label="res_state_NY <= 0.5\ngini = 0.444\nsamples = 3\nvalue = [1, 2]"] ;
7 -> 13 ;
14 [label="gini = 0.0\nsamples = 2\nvalue = [0, 2]"] ;
13 -> 14 ;
15 [label="gini = 0.0\nsamples = 1\nvalue = [1, 0]"] ;
13 -> 15 ;
16 [label="county_fips_code_36047.0 <= 0.5\ngini = 0.074\nsamples = 3820\nvalue = [3673, 147]"] ;
6 -> 16 ;
17 [label="county_fips_code_26099.0 <= 0.5\ngini = 0.071\nsamples = 3814\nvalue = [3673, 141]"] ;
16 -> 17 ;
18 [label="hosp_yn_No <= 0.5\ngini = 0.069\nsamples = 3809\nvalue = [3673, 136]"] ;
17 -> 18 ;
19 [label="gini = 0.13\nsamples = 1484\nvalue = [1380, 104]"] ;
18 -> 19 ;
20 [label="gini = 0.027\nsamples = 2325\nvalue = [2293, 32]"] ;
18 -> 20 ;
21 [label="gini = 0.0\nsamples = 5\nvalue = [0, 5]"] ;
17 -> 21 ;
22 [label="gini = 0.0\nsamples = 6\nvalue = [0, 6]"] ;
16 -> 22 ;
23 [label="icu_yn_Missing <= 0.5\ngini = 0.245\nsamples = 7\nvalue = [1, 6]"] ;
5 -> 23 ;
24 [label="gini = 0.0\nsamples = 6\nvalue = [0, 6]"] ;
23 -> 24 ;
25 [label="gini = 0.0\nsamples = 1\nvalue = [1, 0]"] ;
23 -> 25 ;
26 [label="gini = 0.0\nsamples = 9\nvalue = [0, 9]"] ;
4 -> 26 ;
27 [label="race_Missing <= 0.5\ngini = 0.062\nsamples = 31\nvalue = [1, 30]"] ;
3 -> 27 ;
28 [label="gini = 0.0\nsamples = 30\nvalue = [0, 30]"] ;
27 -> 28 ;
29 [label="gini = 0.0\nsamples = 1\nvalue = [1, 0]"] ;
27 -> 29 ;
30 [label="gini = 0.0\nsamples = 49\nvalue = [0, 49]"] ;
2 -> 30 ;
31 [label="age_group_50 to 64 years <= 0.5\ngini = 0.479\nsamples = 982\nvalue = [391, 591]"] ;
1 -> 31 ;
32 [label="icu_yn_Yes <= 0.5\ngini = 0.421\nsamples = 332\nvalue = [232, 100]"] ;
31 -> 32 ;
33 [label="ethnicity_Hispanic/Latino <= 0.5\ngini = 0.341\nsamples = 293\nvalue = [229, 64]"] ;
32 -> 33 ;
34 [label="res_state_IL <= 0.5\ngini = 0.253\nsamples = 236\nvalue = [201, 35]"] ;
33 -> 34 ;
35 [label="county_fips_code_36047.0 <= 0.5\ngini = 0.232\nsamples = 232\nvalue = [201, 31]"] ;
34 -> 35 ;
36 [label="case_month_2021-08-01 00:00:00 <= 0.5\ngini = 0.209\nsamples = 228\nvalue = [201, 27]"] ;
35 -> 36 ;
37 [label="age_group_Missing <= 0.5\ngini = 0.153\nsamples = 204\nvalue = [187, 17]"] ;
36 -> 37 ;
38 [label="county_fips_code_36081.0 <= 0.5\ngini = 0.13\nsamples = 200\nvalue = [186, 14]"] ;
37 -> 38 ;
39 [label="gini = 0.114\nsamples = 198\nvalue = [186, 12]"] ;
38 -> 39 ;
40 [label="gini = 0.0\nsamples = 2\nvalue = [0, 2]"] ;
38 -> 40 ;
41 [label="sex_Female <= 0.5\ngini = 0.375\nsamples = 4\nvalue = [1, 3]"] ;
37 -> 41 ;
42 [label="gini = 0.5\nsamples = 2\nvalue = [1, 1]"] ;
41 -> 42 ;
43 [label="gini = 0.0\nsamples = 2\nvalue = [0, 2]"] ;
41 -> 43 ;
44 [label="res_state_FL <= 0.5\ngini = 0.486\nsamples = 24\nvalue = [14, 10]"] ;
36 -> 44 ;
45 [label="res_state_AZ <= 0.5\ngini = 0.391\nsamples = 15\nvalue = [11, 4]"] ;
44 -> 45 ;
46 [label="gini = 0.26\nsamples = 13\nvalue = [11, 2]"] ;
45 -> 46 ;
47 [label="gini = 0.0\nsamples = 2\nvalue = [0, 2]"] ;
45 -> 47 ;
48 [label="county_fips_code_12053.0 <= 0.5\ngini = 0.444\nsamples = 9\nvalue = [3, 6]"] ;
44 -> 48 ;
49 [label="gini = 0.375\nsamples = 8\nvalue = [2, 6]"] ;
48 -> 49 ;
50 [label="gini = 0.0\nsamples = 1\nvalue = [1, 0]"] ;
48 -> 50 ;
51 [label="gini = 0.0\nsamples = 4\nvalue = [0, 4]"] ;
35 -> 51 ;
52 [label="gini = 0.0\nsamples = 4\nvalue = [0, 4]"] ;
34 -> 52 ;
53 [label="age_group_0 - 17 years <= 0.5\ngini = 0.5\nsamples = 57\nvalue = [28, 29]"] ;
33 -> 53 ;
54 [label="res_state_CA <= 0.5\ngini = 0.493\nsamples = 52\nvalue = [23, 29]"] ;
53 -> 54 ;
55 [label="month <= 6.5\ngini = 0.5\nsamples = 47\nvalue = [23, 24]"] ;
54 -> 55 ;
56 [label="race_Unknown <= 0.5\ngini = 0.455\nsamples = 20\nvalue = [13, 7]"] ;
55 -> 56 ;
57 [label="county_fips_code_12086.0 <= 0.5\ngini = 0.32\nsamples = 15\nvalue = [12, 3]"] ;
56 -> 57 ;
58 [label="gini = 0.142\nsamples = 13\nvalue = [12, 1]"] ;
57 -> 58 ;
59 [label="gini = 0.0\nsamples = 2\nvalue = [0, 2]"] ;
57 -> 59 ;
60 [label="sex_Female <= 0.5\ngini = 0.32\nsamples = 5\nvalue = [1, 4]"] ;
56 -> 60 ;
61 [label="gini = 0.0\nsamples = 3\nvalue = [0, 3]"] ;
60 -> 61 ;
62 [label="gini = 0.5\nsamples = 2\nvalue = [1, 1]"] ;
60 -> 62 ;
63 [label="icu_yn_Missing <= 0.5\ngini = 0.466\nsamples = 27\nvalue = [10, 17]"] ;
55 -> 63 ;
64 [label="gini = 0.0\nsamples = 2\nvalue = [2, 0]"] ;
63 -> 64 ;
65 [label="sex_Male <= 0.5\ngini = 0.435\nsamples = 25\nvalue = [8, 17]"] ;
63 -> 65 ;
66 [label="gini = 0.5\nsamples = 12\nvalue = [6, 6]"] ;
65 -> 66 ;
67 [label="gini = 0.26\nsamples = 13\nvalue = [2, 11]"] ;
65 -> 67 ;
68 [label="gini = 0.0\nsamples = 5\nvalue = [0, 5]"] ;
54 -> 68 ;
69 [label="gini = 0.0\nsamples = 5\nvalue = [5, 0]"] ;
53 -> 69 ;
70 [label="res_state_IN <= 0.5\ngini = 0.142\nsamples = 39\nvalue = [3, 36]"] ;
32 -> 70 ;
71 [label="county_fips_code_20173.0 <= 0.5\ngini = 0.1\nsamples = 38\nvalue = [2, 36]"] ;
70 -> 71 ;
72 [label="res_state_ME <= 0.5\ngini = 0.053\nsamples = 37\nvalue = [1, 36]"] ;
71 -> 72 ;
73 [label="gini = 0.0\nsamples = 36\nvalue = [0, 36]"] ;
72 -> 73 ;
74 [label="gini = 0.0\nsamples = 1\nvalue = [1, 0]"] ;
72 -> 74 ;
75 [label="gini = 0.0\nsamples = 1\nvalue = [1, 0]"] ;
71 -> 75 ;
76 [label="gini = 0.0\nsamples = 1\nvalue = [1, 0]"] ;
70 -> 76 ;
77 [label="res_state_CA <= 0.5\ngini = 0.37\nsamples = 650\nvalue = [159, 491]"] ;
31 -> 77 ;
78 [label="res_state_NJ <= 0.5\ngini = 0.43\nsamples = 509\nvalue = [159, 350]"] ;
77 -> 78 ;
79 [label="res_state_OH <= 0.5\ngini = 0.403\nsamples = 457\nvalue = [128, 329]"] ;
78 -> 79 ;
80 [label="res_state_KS <= 0.5\ngini = 0.376\nsamples = 426\nvalue = [107, 319]"] ;
79 -> 80 ;
81 [label="icu_yn_No <= 0.5\ngini = 0.361\nsamples = 418\nvalue = [99, 319]"] ;
80 -> 81 ;
82 [label="res_state_MD <= 0.5\ngini = 0.329\nsamples = 386\nvalue = [80, 306]"] ;
81 -> 82 ;
83 [label="res_state_IN <= 0.5\ngini = 0.31\nsamples = 376\nvalue = [72, 304]"] ;
82 -> 83 ;
84 [label="gini = 0.299\nsamples = 372\nvalue = [68, 304]"] ;
83 -> 84 ;
85 [label="gini = 0.0\nsamples = 4\nvalue = [4, 0]"] ;
83 -> 85 ;
86 [label="case_month_2020-04-01 00:00:00 <= 0.5\ngini = 0.32\nsamples = 10\nvalue = [8, 2]"] ;
82 -> 86 ;
87 [label="gini = 0.198\nsamples = 9\nvalue = [8, 1]"] ;
86 -> 87 ;
88 [label="gini = 0.0\nsamples = 1\nvalue = [0, 1]"] ;
86 -> 88 ;
89 [label="county_fips_code_32003.0 <= 0.5\ngini = 0.482\nsamples = 32\nvalue = [19, 13]"] ;
81 -> 89 ;
90 [label="case_month_2020-03-01 00:00:00 <= 0.5\ngini = 0.426\nsamples = 26\nvalue = [18, 8]"] ;
89 -> 90 ;
91 [label="gini = 0.34\nsamples = 23\nvalue = [18, 5]"] ;
90 -> 91 ;
92 [label="gini = 0.0\nsamples = 3\nvalue = [0, 3]"] ;
90 -> 92 ;
93 [label="month <= 4.0\ngini = 0.278\nsamples = 6\nvalue = [1, 5]"] ;
89 -> 93 ;
94 [label="gini = 0.0\nsamples = 1\nvalue = [1, 0]"] ;
93 -> 94 ;
95 [label="gini = 0.0\nsamples = 5\nvalue = [0, 5]"] ;
93 -> 95 ;
96 [label="gini = 0.0\nsamples = 8\nvalue = [8, 0]"] ;
80 -> 96 ;
97 [label="icu_yn_Missing <= 0.5\ngini = 0.437\nsamples = 31\nvalue = [21, 10]"] ;
79 -> 97 ;
98 [label="icu_yn_No <= 0.5\ngini = 0.484\nsamples = 17\nvalue = [7, 10]"] ;
97 -> 98 ;
99 [label="case_month_2021-01-01 00:00:00 <= 0.5\ngini = 0.375\nsamples = 12\nvalue = [3, 9]"] ;
98 -> 99 ;
100 [label="case_month_2021-02-01 00:00:00 <= 0.5\ngini = 0.298\nsamples = 11\nvalue = [2, 9]"] ;
99 -> 100 ;
101 [label="gini = 0.18\nsamples = 10\nvalue = [1, 9]"] ;
100 -> 101 ;
102 [label="gini = 0.0\nsamples = 1\nvalue = [1, 0]"] ;
100 -> 102 ;
103 [label="gini = 0.0\nsamples = 1\nvalue = [1, 0]"] ;
99 -> 103 ;
104 [label="month <= 3.0\ngini = 0.32\nsamples = 5\nvalue = [4, 1]"] ;
98 -> 104 ;
105 [label="gini = 0.0\nsamples = 1\nvalue = [0, 1]"] ;
104 -> 105 ;
106 [label="gini = 0.0\nsamples = 4\nvalue = [4, 0]"] ;
104 -> 106 ;
107 [label="gini = 0.0\nsamples = 14\nvalue = [14, 0]"] ;
97 -> 107 ;
108 [label="case_month_2020-04-01 00:00:00 <= 0.5\ngini = 0.482\nsamples = 52\nvalue = [31, 21]"] ;
78 -> 108 ;
109 [label="sex_Female <= 0.5\ngini = 0.35\nsamples = 31\nvalue = [24, 7]"] ;
108 -> 109 ;
110 [label="county_fips_code_34003.0 <= 0.5\ngini = 0.484\nsamples = 17\nvalue = [10, 7]"] ;
109 -> 110 ;
111 [label="case_month_2021-10-01 00:00:00 <= 0.5\ngini = 0.444\nsamples = 15\nvalue = [10, 5]"] ;
110 -> 111 ;
112 [label="county_fips_code_34039.0 <= 0.5\ngini = 0.408\nsamples = 14\nvalue = [10, 4]"] ;
111 -> 112 ;
113 [label="gini = 0.298\nsamples = 11\nvalue = [9, 2]"] ;
112 -> 113 ;
114 [label="gini = 0.444\nsamples = 3\nvalue = [1, 2]"] ;
112 -> 114 ;
115 [label="gini = 0.0\nsamples = 1\nvalue = [0, 1]"] ;
111 -> 115 ;
116 [label="gini = 0.0\nsamples = 2\nvalue = [0, 2]"] ;
110 -> 116 ;
117 [label="gini = 0.0\nsamples = 14\nvalue = [14, 0]"] ;
109 -> 117 ;
118 [label="ethnicity_Missing <= 0.5\ngini = 0.444\nsamples = 21\nvalue = [7, 14]"] ;
108 -> 118 ;
119 [label="county_fips_code_34017.0 <= 0.5\ngini = 0.42\nsamples = 20\nvalue = [6, 14]"] ;
118 -> 119 ;
120 [label="county_fips_code_34037.0 <= 0.5\ngini = 0.48\nsamples = 15\nvalue = [6, 9]"] ;
119 -> 120 ;
121 [label="county_fips_code_34025.0 <= 0.5\ngini = 0.459\nsamples = 14\nvalue = [5, 9]"] ;
120 -> 121 ;
122 [label="gini = 0.426\nsamples = 13\nvalue = [4, 9]"] ;
121 -> 122 ;
123 [label="gini = 0.0\nsamples = 1\nvalue = [1, 0]"] ;
121 -> 123 ;
124 [label="gini = 0.0\nsamples = 1\nvalue = [1, 0]"] ;
120 -> 124 ;
125 [label="gini = 0.0\nsamples = 5\nvalue = [0, 5]"] ;
119 -> 125 ;
126 [label="gini = 0.0\nsamples = 1\nvalue = [1, 0]"] ;
118 -> 126 ;
127 [label="gini = 0.0\nsamples = 141\nvalue = [0, 141]"] ;
77 -> 127 ;
128 [label="hosp_yn_No <= 0.5\ngini = 0.415\nsamples = 8707\nvalue = [2559, 6148]"] ;
0 -> 128 [labeldistance=2.5, labelangle=-45, headlabel="False"] ;
129 [label="res_state_NC <= 0.5\ngini = 0.291\nsamples = 6396\nvalue = [1131, 5265]"] ;
128 -> 129 ;
130 [label="hosp_yn_Missing <= 0.5\ngini = 0.256\nsamples = 6124\nvalue = [925, 5199]"] ;
129 -> 130 ;
131 [label="res_state_KY <= 0.5\ngini = 0.157\nsamples = 4385\nvalue = [377, 4008]"] ;
130 -> 131 ;
132 [label="res_state_OR <= 0.5\ngini = 0.144\nsamples = 4279\nvalue = [335, 3944]"] ;
131 -> 132 ;
133 [label="res_state_KS <= 0.5\ngini = 0.136\nsamples = 4233\nvalue = [311, 3922]"] ;
132 -> 133 ;
134 [label="res_state_MD <= 0.5\ngini = 0.125\nsamples = 4149\nvalue = [278, 3871]"] ;
133 -> 134 ;
135 [label="icu_yn_Unknown <= 0.5\ngini = 0.12\nsamples = 4122\nvalue = [264, 3858]"] ;
134 -> 135 ;
136 [label="icu_yn_Yes <= 0.5\ngini = 0.146\nsamples = 3190\nvalue = [253, 2937]"] ;
135 -> 136 ;
137 [label="gini = 0.167\nsamples = 2701\nvalue = [249, 2452]"] ;
136 -> 137 ;
138 [label="gini = 0.016\nsamples = 489\nvalue = [4, 485]"] ;
136 -> 138 ;
139 [label="county_fips_code_26117.0 <= 0.5\ngini = 0.023\nsamples = 932\nvalue = [11, 921]"] ;
135 -> 139 ;
140 [label="gini = 0.021\nsamples = 931\nvalue = [10, 921]"] ;
139 -> 140 ;
141 [label="gini = 0.0\nsamples = 1\nvalue = [1, 0]"] ;
139 -> 141 ;
142 [label="case_month_2020-04-01 00:00:00 <= 0.5\ngini = 0.499\nsamples = 27\nvalue = [14, 13]"] ;
134 -> 142 ;
143 [label="case_month_2020-05-01 00:00:00 <= 0.5\ngini = 0.444\nsamples = 21\nvalue = [14, 7]"] ;
142 -> 143 ;
144 [label="gini = 0.346\nsamples = 18\nvalue = [14, 4]"] ;
143 -> 144 ;
145 [label="gini = 0.0\nsamples = 3\nvalue = [0, 3]"] ;
143 -> 145 ;
146 [label="gini = 0.0\nsamples = 6\nvalue = [0, 6]"] ;
142 -> 146 ;
147 [label="month <= 8.5\ngini = 0.477\nsamples = 84\nvalue = [33, 51]"] ;
133 -> 147 ;
148 [label="hosp_yn_Unknown <= 0.5\ngini = 0.384\nsamples = 27\nvalue = [20, 7]"] ;
147 -> 148 ;
149 [label="county_fips_code_20091.0 <= 0.5\ngini = 0.496\nsamples = 11\nvalue = [6, 5]"] ;
148 -> 149 ;
150 [label="gini = 0.444\nsamples = 9\nvalue = [6, 3]"] ;
149 -> 150 ;
151 [label="gini = 0.0\nsamples = 2\nvalue = [0, 2]"] ;
149 -> 151 ;
152 [label="county_fips_code_-1.0 <= 0.5\ngini = 0.219\nsamples = 16\nvalue = [14, 2]"] ;
148 -> 152 ;
153 [label="gini = 0.0\nsamples = 10\nvalue = [10, 0]"] ;
152 -> 153 ;
154 [label="gini = 0.444\nsamples = 6\nvalue = [4, 2]"] ;
152 -> 154 ;
155 [label="sex_Male <= 0.5\ngini = 0.352\nsamples = 57\nvalue = [13, 44]"] ;
147 -> 155 ;
156 [label="icu_yn_Missing <= 0.5\ngini = 0.482\nsamples = 32\nvalue = [13, 19]"] ;
155 -> 156 ;
157 [label="gini = 0.18\nsamples = 10\nvalue = [1, 9]"] ;
156 -> 157 ;
158 [label="gini = 0.496\nsamples = 22\nvalue = [12, 10]"] ;
156 -> 158 ;
159 [label="gini = 0.0\nsamples = 25\nvalue = [0, 25]"] ;
155 -> 159 ;
160 [label="county_fips_code_41051.0 <= 0.5\ngini = 0.499\nsamples = 46\nvalue = [24, 22]"] ;
132 -> 160 ;
161 [label="county_fips_code_41005.0 <= 0.5\ngini = 0.48\nsamples = 40\nvalue = [24, 16]"] ;
160 -> 161 ;
162 [label="county_fips_code_41047.0 <= 0.5\ngini = 0.431\nsamples = 35\nvalue = [24, 11]"] ;
161 -> 162 ;
163 [label="month <= 2.5\ngini = 0.375\nsamples = 32\nvalue = [24, 8]"] ;
162 -> 163 ;
164 [label="gini = 0.5\nsamples = 8\nvalue = [4, 4]"] ;
163 -> 164 ;
165 [label="gini = 0.278\nsamples = 24\nvalue = [20, 4]"] ;
163 -> 165 ;
166 [label="gini = 0.0\nsamples = 3\nvalue = [0, 3]"] ;
162 -> 166 ;
167 [label="gini = 0.0\nsamples = 5\nvalue = [0, 5]"] ;
161 -> 167 ;
168 [label="gini = 0.0\nsamples = 6\nvalue = [0, 6]"] ;
160 -> 168 ;
169 [label="hosp_yn_Yes <= 0.5\ngini = 0.478\nsamples = 106\nvalue = [42, 64]"] ;
131 -> 169 ;
170 [label="month <= 10.5\ngini = 0.435\nsamples = 47\nvalue = [32, 15]"] ;
169 -> 170 ;
171 [label="county_fips_code_-1.0 <= 0.5\ngini = 0.346\nsamples = 36\nvalue = [28, 8]"] ;
170 -> 171 ;
172 [label="case_month_2020-09-01 00:00:00 <= 0.5\ngini = 0.165\nsamples = 22\nvalue = [20, 2]"] ;
171 -> 172 ;
173 [label="case_month_2020-04-01 00:00:00 <= 0.5\ngini = 0.091\nsamples = 21\nvalue = [20, 1]"] ;
172 -> 173 ;
174 [label="gini = 0.0\nsamples = 20\nvalue = [20, 0]"] ;
173 -> 174 ;
175 [label="gini = 0.0\nsamples = 1\nvalue = [0, 1]"] ;
173 -> 175 ;
176 [label="gini = 0.0\nsamples = 1\nvalue = [0, 1]"] ;
172 -> 176 ;
177 [label="race_White <= 0.5\ngini = 0.49\nsamples = 14\nvalue = [8, 6]"] ;
171 -> 177 ;
178 [label="gini = 0.0\nsamples = 5\nvalue = [5, 0]"] ;
177 -> 178 ;
179 [label="sex_Female <= 0.5\ngini = 0.444\nsamples = 9\nvalue = [3, 6]"] ;
177 -> 179 ;
180 [label="gini = 0.5\nsamples = 6\nvalue = [3, 3]"] ;
179 -> 180 ;
181 [label="gini = 0.0\nsamples = 3\nvalue = [0, 3]"] ;
179 -> 181 ;
182 [label="case_month_2021-11-01 00:00:00 <= 0.5\ngini = 0.463\nsamples = 11\nvalue = [4, 7]"] ;
170 -> 182 ;
183 [label="county_fips_code_21117.0 <= 0.5\ngini = 0.245\nsamples = 7\nvalue = [1, 6]"] ;
182 -> 183 ;
184 [label="gini = 0.0\nsamples = 6\nvalue = [0, 6]"] ;
183 -> 184 ;
185 [label="gini = 0.0\nsamples = 1\nvalue = [1, 0]"] ;
183 -> 185 ;
186 [label="sex_Male <= 0.5\ngini = 0.375\nsamples = 4\nvalue = [3, 1]"] ;
182 -> 186 ;
187 [label="gini = 0.0\nsamples = 2\nvalue = [2, 0]"] ;
186 -> 187 ;
188 [label="race_White <= 0.5\ngini = 0.5\nsamples = 2\nvalue = [1, 1]"] ;
186 -> 188 ;
189 [label="gini = 0.0\nsamples = 1\nvalue = [1, 0]"] ;
188 -> 189 ;
190 [label="gini = 0.0\nsamples = 1\nvalue = [0, 1]"] ;
188 -> 190 ;
191 [label="county_fips_code_-1.0 <= 0.5\ngini = 0.282\nsamples = 59\nvalue = [10, 49]"] ;
169 -> 191 ;
192 [label="icu_yn_Yes <= 0.5\ngini = 0.436\nsamples = 28\nvalue = [9, 19]"] ;
191 -> 192 ;
193 [label="month <= 2.5\ngini = 0.49\nsamples = 21\nvalue = [9, 12]"] ;
192 -> 193 ;
194 [label="county_fips_code_21067.0 <= 0.5\ngini = 0.375\nsamples = 4\nvalue = [3, 1]"] ;
193 -> 194 ;
195 [label="gini = 0.0\nsamples = 3\nvalue = [3, 0]"] ;
194 -> 195 ;
196 [label="gini = 0.0\nsamples = 1\nvalue = [0, 1]"] ;
194 -> 196 ;
197 [label="icu_yn_Missing <= 0.5\ngini = 0.457\nsamples = 17\nvalue = [6, 11]"] ;
193 -> 197 ;
198 [label="gini = 0.497\nsamples = 13\nvalue = [6, 7]"] ;
197 -> 198 ;
199 [label="gini = 0.0\nsamples = 4\nvalue = [0, 4]"] ;
197 -> 199 ;
200 [label="gini = 0.0\nsamples = 7\nvalue = [0, 7]"] ;
192 -> 200 ;
201 [label="case_month_2020-08-01 00:00:00 <= 0.5\ngini = 0.062\nsamples = 31\nvalue = [1, 30]"] ;
191 -> 201 ;
202 [label="gini = 0.0\nsamples = 28\nvalue = [0, 28]"] ;
201 -> 202 ;
203 [label="sex_Female <= 0.5\ngini = 0.444\nsamples = 3\nvalue = [1, 2]"] ;
201 -> 203 ;
204 [label="gini = 0.0\nsamples = 2\nvalue = [0, 2]"] ;
203 -> 204 ;
205 [label="gini = 0.0\nsamples = 1\nvalue = [1, 0]"] ;
203 -> 205 ;
206 [label="res_state_NY <= 0.5\ngini = 0.432\nsamples = 1739\nvalue = [548, 1191]"] ;
130 -> 206 ;
207 [label="res_state_MN <= 0.5\ngini = 0.338\nsamples = 1414\nvalue = [305, 1109]"] ;
206 -> 207 ;
208 [label="ethnicity_Missing <= 0.5\ngini = 0.269\nsamples = 1285\nvalue = [206, 1079]"] ;
207 -> 208 ;
209 [label="res_state_KY <= 0.5\ngini = 0.237\nsamples = 1192\nvalue = [164, 1028]"] ;
208 -> 209 ;
210 [label="res_state_RI <= 0.5\ngini = 0.225\nsamples = 1178\nvalue = [152, 1026]"] ;
209 -> 210 ;
211 [label="res_state_OH <= 0.5\ngini = 0.21\nsamples = 1155\nvalue = [138, 1017]"] ;
210 -> 211 ;
212 [label="gini = 0.16\nsamples = 969\nvalue = [85, 884]"] ;
211 -> 212 ;
213 [label="gini = 0.408\nsamples = 186\nvalue = [53, 133]"] ;
211 -> 213 ;
214 [label="case_month_2021-01-01 00:00:00 <= 0.5\ngini = 0.476\nsamples = 23\nvalue = [14, 9]"] ;
210 -> 214 ;
215 [label="gini = 0.42\nsamples = 20\nvalue = [14, 6]"] ;
214 -> 215 ;
216 [label="gini = 0.0\nsamples = 3\nvalue = [0, 3]"] ;
214 -> 216 ;
217 [label="case_month_2020-11-01 00:00:00 <= 0.5\ngini = 0.245\nsamples = 14\nvalue = [12, 2]"] ;
209 -> 217 ;
218 [label="sex_Male <= 0.5\ngini = 0.142\nsamples = 13\nvalue = [12, 1]"] ;
217 -> 218 ;
219 [label="gini = 0.375\nsamples = 4\nvalue = [3, 1]"] ;
218 -> 219 ;
220 [label="gini = 0.0\nsamples = 9\nvalue = [9, 0]"] ;
218 -> 220 ;
221 [label="gini = 0.0\nsamples = 1\nvalue = [0, 1]"] ;
217 -> 221 ;
222 [label="res_state_CT <= 0.5\ngini = 0.495\nsamples = 93\nvalue = [42, 51]"] ;
208 -> 222 ;
223 [label="res_state_ND <= 0.5\ngini = 0.472\nsamples = 68\nvalue = [42, 26]"] ;
222 -> 223 ;
224 [label="race_Missing <= 0.5\ngini = 0.375\nsamples = 56\nvalue = [42, 14]"] ;
223 -> 224 ;
225 [label="gini = 0.198\nsamples = 45\nvalue = [40, 5]"] ;
224 -> 225 ;
226 [label="gini = 0.298\nsamples = 11\nvalue = [2, 9]"] ;
224 -> 226 ;
227 [label="gini = 0.0\nsamples = 12\nvalue = [0, 12]"] ;
223 -> 227 ;
228 [label="gini = 0.0\nsamples = 25\nvalue = [0, 25]"] ;
222 -> 228 ;
229 [label="case_month_2020-05-01 00:00:00 <= 0.5\ngini = 0.357\nsamples = 129\nvalue = [99, 30]"] ;
207 -> 229 ;
230 [label="case_month_2020-12-01 00:00:00 <= 0.5\ngini = 0.337\nsamples = 126\nvalue = [99, 27]"] ;
229 -> 230 ;
231 [label="case_month_2020-10-01 00:00:00 <= 0.5\ngini = 0.284\nsamples = 111\nvalue = [92, 19]"] ;
230 -> 231 ;
232 [label="county_fips_code_27145.0 <= 0.5\ngini = 0.241\nsamples = 100\nvalue = [86, 14]"] ;
231 -> 232 ;
233 [label="gini = 0.215\nsamples = 98\nvalue = [86, 12]"] ;
232 -> 233 ;
234 [label="gini = 0.0\nsamples = 2\nvalue = [0, 2]"] ;
232 -> 234 ;
235 [label="county_fips_code_27053.0 <= 0.5\ngini = 0.496\nsamples = 11\nvalue = [6, 5]"] ;
231 -> 235 ;
236 [label="gini = 0.444\nsamples = 9\nvalue = [6, 3]"] ;
235 -> 236 ;
237 [label="gini = 0.0\nsamples = 2\nvalue = [0, 2]"] ;
235 -> 237 ;
238 [label="sex_Female <= 0.5\ngini = 0.498\nsamples = 15\nvalue = [7, 8]"] ;
230 -> 238 ;
239 [label="county_fips_code_-1.0 <= 0.5\ngini = 0.32\nsamples = 5\nvalue = [4, 1]"] ;
238 -> 239 ;
240 [label="gini = 0.0\nsamples = 3\nvalue = [3, 0]"] ;
239 -> 240 ;
241 [label="gini = 0.5\nsamples = 2\nvalue = [1, 1]"] ;
239 -> 241 ;
242 [label="county_fips_code_27109.0 <= 0.5\ngini = 0.42\nsamples = 10\nvalue = [3, 7]"] ;
238 -> 242 ;
243 [label="gini = 0.346\nsamples = 9\nvalue = [2, 7]"] ;
242 -> 243 ;
244 [label="gini = 0.0\nsamples = 1\nvalue = [1, 0]"] ;
242 -> 244 ;
245 [label="gini = 0.0\nsamples = 3\nvalue = [0, 3]"] ;
229 -> 245 ;
246 [label="case_month_2020-04-01 00:00:00 <= 0.5\ngini = 0.377\nsamples = 325\nvalue = [243, 82]"] ;
206 -> 246 ;
247 [label="case_month_2020-03-01 00:00:00 <= 0.5\ngini = 0.304\nsamples = 294\nvalue = [239, 55]"] ;
246 -> 247 ;
248 [label="county_fips_code_36081.0 <= 0.5\ngini = 0.26\nsamples = 280\nvalue = [237, 43]"] ;
247 -> 248 ;
249 [label="county_fips_code_36029.0 <= 0.5\ngini = 0.224\nsamples = 272\nvalue = [237, 35]"] ;
248 -> 249 ;
250 [label="county_fips_code_36047.0 <= 0.5\ngini = 0.11\nsamples = 223\nvalue = [210, 13]"] ;
249 -> 250 ;
251 [label="gini = 0.062\nsamples = 217\nvalue = [210, 7]"] ;
250 -> 251 ;
252 [label="gini = 0.0\nsamples = 6\nvalue = [0, 6]"] ;
250 -> 252 ;
253 [label="ethnicity_Unknown <= 0.5\ngini = 0.495\nsamples = 49\nvalue = [27, 22]"] ;
249 -> 253 ;
254 [label="gini = 0.457\nsamples = 34\nvalue = [12, 22]"] ;
253 -> 254 ;
255 [label="gini = 0.0\nsamples = 15\nvalue = [15, 0]"] ;
253 -> 255 ;
256 [label="gini = 0.0\nsamples = 8\nvalue = [0, 8]"] ;
248 -> 256 ;
257 [label="race_Black <= 0.5\ngini = 0.245\nsamples = 14\nvalue = [2, 12]"] ;
247 -> 257 ;
258 [label="county_fips_code_36103.0 <= 0.5\ngini = 0.142\nsamples = 13\nvalue = [1, 12]"] ;
257 -> 258 ;
259 [label="gini = 0.0\nsamples = 10\nvalue = [0, 10]"] ;
258 -> 259 ;
260 [label="sex_Female <= 0.5\ngini = 0.444\nsamples = 3\nvalue = [1, 2]"] ;
258 -> 260 ;
261 [label="gini = 0.0\nsamples = 1\nvalue = [0, 1]"] ;
260 -> 261 ;
262 [label="gini = 0.5\nsamples = 2\nvalue = [1, 1]"] ;
260 -> 262 ;
263 [label="gini = 0.0\nsamples = 1\nvalue = [1, 0]"] ;
257 -> 263 ;
264 [label="county_fips_code_36087.0 <= 0.5\ngini = 0.225\nsamples = 31\nvalue = [4, 27]"] ;
246 -> 264 ;
265 [label="race_Unknown <= 0.5\ngini = 0.18\nsamples = 30\nvalue = [3, 27]"] ;
264 -> 265 ;
266 [label="race_Missing <= 0.5\ngini = 0.077\nsamples = 25\nvalue = [1, 24]"] ;
265 -> 266 ;
267 [label="gini = 0.0\nsamples = 20\nvalue = [0, 20]"] ;
266 -> 267 ;
268 [label="county_fips_code_36103.0 <= 0.5\ngini = 0.32\nsamples = 5\nvalue = [1, 4]"] ;
266 -> 268 ;
269 [label="gini = 0.0\nsamples = 2\nvalue = [0, 2]"] ;
268 -> 269 ;
270 [label="gini = 0.444\nsamples = 3\nvalue = [1, 2]"] ;
268 -> 270 ;
271 [label="ethnicity_Unknown <= 0.5\ngini = 0.48\nsamples = 5\nvalue = [2, 3]"] ;
265 -> 271 ;
272 [label="gini = 0.0\nsamples = 2\nvalue = [2, 0]"] ;
271 -> 272 ;
273 [label="gini = 0.0\nsamples = 3\nvalue = [0, 3]"] ;
271 -> 273 ;
274 [label="gini = 0.0\nsamples = 1\nvalue = [1, 0]"] ;
264 -> 274 ;
275 [label="hosp_yn_Yes <= 0.5\ngini = 0.368\nsamples = 272\nvalue = [206, 66]"] ;
129 -> 275 ;
276 [label="month <= 1.5\ngini = 0.159\nsamples = 206\nvalue = [188, 18]"] ;
275 -> 276 ;
277 [label="ethnicity_Unknown <= 0.5\ngini = 0.292\nsamples = 62\nvalue = [51, 11]"] ;
276 -> 277 ;
278 [label="sex_Female <= 0.5\ngini = 0.399\nsamples = 40\nvalue = [29, 11]"] ;
277 -> 278 ;
279 [label="case_month_2021-01-01 00:00:00 <= 0.5\ngini = 0.5\nsamples = 14\nvalue = [7, 7]"] ;
278 -> 279 ;
280 [label="county_fips_code_37051.0 <= 0.5\ngini = 0.486\nsamples = 12\nvalue = [7, 5]"] ;
279 -> 280 ;
281 [label="county_fips_code_37089.0 <= 0.5\ngini = 0.463\nsamples = 11\nvalue = [7, 4]"] ;
280 -> 281 ;
282 [label="gini = 0.42\nsamples = 10\nvalue = [7, 3]"] ;
281 -> 282 ;
283 [label="gini = 0.0\nsamples = 1\nvalue = [0, 1]"] ;
281 -> 283 ;
284 [label="gini = 0.0\nsamples = 1\nvalue = [0, 1]"] ;
280 -> 284 ;
285 [label="gini = 0.0\nsamples = 2\nvalue = [0, 2]"] ;
279 -> 285 ;
286 [label="county_fips_code_37085.0 <= 0.5\ngini = 0.26\nsamples = 26\nvalue = [22, 4]"] ;
278 -> 286 ;
287 [label="county_fips_code_37027.0 <= 0.5\ngini = 0.211\nsamples = 25\nvalue = [22, 3]"] ;
286 -> 287 ;
288 [label="county_fips_code_37001.0 <= 0.5\ngini = 0.159\nsamples = 23\nvalue = [21, 2]"] ;
287 -> 288 ;
289 [label="gini = 0.091\nsamples = 21\nvalue = [20, 1]"] ;
288 -> 289 ;
290 [label="gini = 0.5\nsamples = 2\nvalue = [1, 1]"] ;
288 -> 290 ;
291 [label="gini = 0.5\nsamples = 2\nvalue = [1, 1]"] ;
287 -> 291 ;
292 [label="gini = 0.0\nsamples = 1\nvalue = [0, 1]"] ;
286 -> 292 ;
293 [label="gini = 0.0\nsamples = 22\nvalue = [22, 0]"] ;
277 -> 293 ;
294 [label="case_month_2020-12-01 00:00:00 <= 0.5\ngini = 0.092\nsamples = 144\nvalue = [137, 7]"] ;
276 -> 294 ;
295 [label="county_fips_code_37159.0 <= 0.5\ngini = 0.059\nsamples = 131\nvalue = [127, 4]"] ;
294 -> 295 ;
296 [label="county_fips_code_37183.0 <= 0.5\ngini = 0.045\nsamples = 129\nvalue = [126, 3]"] ;
295 -> 296 ;
297 [label="gini = 0.0\nsamples = 112\nvalue = [112, 0]"] ;
296 -> 297 ;
298 [label="month <= 7.5\ngini = 0.291\nsamples = 17\nvalue = [14, 3]"] ;
296 -> 298 ;
299 [label="month <= 2.5\ngini = 0.133\nsamples = 14\nvalue = [13, 1]"] ;
298 -> 299 ;
300 [label="gini = 0.444\nsamples = 3\nvalue = [2, 1]"] ;
299 -> 300 ;
301 [label="gini = 0.0\nsamples = 11\nvalue = [11, 0]"] ;
299 -> 301 ;
302 [label="case_month_2022-11-01 00:00:00 <= 0.5\ngini = 0.444\nsamples = 3\nvalue = [1, 2]"] ;
298 -> 302 ;
303 [label="gini = 0.0\nsamples = 2\nvalue = [0, 2]"] ;
302 -> 303 ;
304 [label="gini = 0.0\nsamples = 1\nvalue = [1, 0]"] ;
302 -> 304 ;
305 [label="case_month_2021-12-01 00:00:00 <= 0.5\ngini = 0.5\nsamples = 2\nvalue = [1, 1]"] ;
295 -> 305 ;
306 [label="gini = 0.0\nsamples = 1\nvalue = [1, 0]"] ;
305 -> 306 ;
307 [label="gini = 0.0\nsamples = 1\nvalue = [0, 1]"] ;
305 -> 307 ;
308 [label="county_fips_code_37021.0 <= 0.5\ngini = 0.355\nsamples = 13\nvalue = [10, 3]"] ;
294 -> 308 ;
309 [label="county_fips_code_37125.0 <= 0.5\ngini = 0.278\nsamples = 12\nvalue = [10, 2]"] ;
308 -> 309 ;
310 [label="county_fips_code_37119.0 <= 0.5\ngini = 0.165\nsamples = 11\nvalue = [10, 1]"] ;
309 -> 310 ;
311 [label="gini = 0.0\nsamples = 9\nvalue = [9, 0]"] ;
310 -> 311 ;
312 [label="sex_Male <= 0.5\ngini = 0.5\nsamples = 2\nvalue = [1, 1]"] ;
310 -> 312 ;
313 [label="gini = 0.0\nsamples = 1\nvalue = [0, 1]"] ;
312 -> 313 ;
314 [label="gini = 0.0\nsamples = 1\nvalue = [1, 0]"] ;
312 -> 314 ;
315 [label="gini = 0.0\nsamples = 1\nvalue = [0, 1]"] ;
309 -> 315 ;
316 [label="gini = 0.0\nsamples = 1\nvalue = [0, 1]"] ;
308 -> 316 ;
317 [label="case_month_2022-01-01 00:00:00 <= 0.5\ngini = 0.397\nsamples = 66\nvalue = [18, 48]"] ;
275 -> 317 ;
318 [label="month <= 6.5\ngini = 0.457\nsamples = 51\nvalue = [18, 33]"] ;
317 -> 318 ;
319 [label="county_fips_code_37081.0 <= 0.5\ngini = 0.494\nsamples = 18\nvalue = [10, 8]"] ;
318 -> 319 ;
320 [label="sex_Female <= 0.5\ngini = 0.469\nsamples = 16\nvalue = [10, 6]"] ;
319 -> 320 ;
321 [label="case_month_2020-06-01 00:00:00 <= 0.5\ngini = 0.49\nsamples = 7\nvalue = [3, 4]"] ;
320 -> 321 ;
322 [label="county_fips_code_37087.0 <= 0.5\ngini = 0.32\nsamples = 5\nvalue = [1, 4]"] ;
321 -> 322 ;
323 [label="gini = 0.0\nsamples = 4\nvalue = [0, 4]"] ;
322 -> 323 ;
324 [label="gini = 0.0\nsamples = 1\nvalue = [1, 0]"] ;
322 -> 324 ;
325 [label="gini = 0.0\nsamples = 2\nvalue = [2, 0]"] ;
321 -> 325 ;
326 [label="ethnicity_Non-Hispanic/Latino <= 0.5\ngini = 0.346\nsamples = 9\nvalue = [7, 2]"] ;
320 -> 326 ;
327 [label="gini = 0.0\nsamples = 1\nvalue = [0, 1]"] ;
326 -> 327 ;
328 [label="county_fips_code_-1.0 <= 0.5\ngini = 0.219\nsamples = 8\nvalue = [7, 1]"] ;
326 -> 328 ;
329 [label="gini = 0.0\nsamples = 7\nvalue = [7, 0]"] ;
328 -> 329 ;
330 [label="gini = 0.0\nsamples = 1\nvalue = [0, 1]"] ;
328 -> 330 ;
331 [label="gini = 0.0\nsamples = 2\nvalue = [0, 2]"] ;
319 -> 331 ;
332 [label="icu_yn_Yes <= 0.5\ngini = 0.367\nsamples = 33\nvalue = [8, 25]"] ;
318 -> 332 ;
333 [label="case_month_2020-12-01 00:00:00 <= 0.5\ngini = 0.475\nsamples = 18\nvalue = [7, 11]"] ;
332 -> 333 ;
334 [label="county_fips_code_37045.0 <= 0.5\ngini = 0.408\nsamples = 14\nvalue = [4, 10]"] ;
333 -> 334 ;
335 [label="county_fips_code_-1.0 <= 0.5\ngini = 0.355\nsamples = 13\nvalue = [3, 10]"] ;
334 -> 335 ;
336 [label="gini = 0.278\nsamples = 12\nvalue = [2, 10]"] ;
335 -> 336 ;
337 [label="gini = 0.0\nsamples = 1\nvalue = [1, 0]"] ;
335 -> 337 ;
338 [label="gini = 0.0\nsamples = 1\nvalue = [1, 0]"] ;
334 -> 338 ;
339 [label="county_fips_code_37071.0 <= 0.5\ngini = 0.375\nsamples = 4\nvalue = [3, 1]"] ;
333 -> 339 ;
340 [label="gini = 0.0\nsamples = 3\nvalue = [3, 0]"] ;
339 -> 340 ;
341 [label="gini = 0.0\nsamples = 1\nvalue = [0, 1]"] ;
339 -> 341 ;
342 [label="county_fips_code_-1.0 <= 0.5\ngini = 0.124\nsamples = 15\nvalue = [1, 14]"] ;
332 -> 342 ;
343 [label="gini = 0.0\nsamples = 13\nvalue = [0, 13]"] ;
342 -> 343 ;
344 [label="sex_Male <= 0.5\ngini = 0.5\nsamples = 2\nvalue = [1, 1]"] ;
342 -> 344 ;
345 [label="gini = 0.0\nsamples = 1\nvalue = [1, 0]"] ;
344 -> 345 ;
346 [label="gini = 0.0\nsamples = 1\nvalue = [0, 1]"] ;
344 -> 346 ;
347 [label="gini = 0.0\nsamples = 15\nvalue = [0, 15]"] ;
317 -> 347 ;
348 [label="res_state_CA <= 0.5\ngini = 0.472\nsamples = 2311\nvalue = [1428, 883]"] ;
128 -> 348 ;
349 [label="case_month_2020-04-01 00:00:00 <= 0.5\ngini = 0.453\nsamples = 2185\nvalue = [1428, 757]"] ;
348 -> 349 ;
350 [label="case_month_2020-05-01 00:00:00 <= 0.5\ngini = 0.436\nsamples = 2075\nvalue = [1410, 665]"] ;
349 -> 350 ;
351 [label="case_month_2020-12-01 00:00:00 <= 0.5\ngini = 0.425\nsamples = 2018\nvalue = [1399, 619]"] ;
350 -> 351 ;
352 [label="case_month_2020-11-01 00:00:00 <= 0.5\ngini = 0.398\nsamples = 1776\nvalue = [1289, 487]"] ;
351 -> 352 ;
353 [label="res_state_FL <= 0.5\ngini = 0.37\nsamples = 1580\nvalue = [1193, 387]"] ;
352 -> 353 ;
354 [label="res_state_WA <= 0.5\ngini = 0.337\nsamples = 1312\nvalue = [1030, 282]"] ;
353 -> 354 ;
355 [label="res_state_IL <= 0.5\ngini = 0.331\nsamples = 1302\nvalue = [1030, 272]"] ;
354 -> 355 ;
356 [label="gini = 0.323\nsamples = 1290\nvalue = [1029, 261]"] ;
355 -> 356 ;
357 [label="gini = 0.153\nsamples = 12\nvalue = [1, 11]"] ;
355 -> 357 ;
358 [label="gini = 0.0\nsamples = 10\nvalue = [0, 10]"] ;
354 -> 358 ;
359 [label="case_month_2021-07-01 00:00:00 <= 0.5\ngini = 0.477\nsamples = 268\nvalue = [163, 105]"] ;
353 -> 359 ;
360 [label="case_month_2020-07-01 00:00:00 <= 0.5\ngini = 0.466\nsamples = 252\nvalue = [159, 93]"] ;
359 -> 360 ;
361 [label="gini = 0.449\nsamples = 232\nvalue = [153, 79]"] ;
360 -> 361 ;
362 [label="gini = 0.42\nsamples = 20\nvalue = [6, 14]"] ;
360 -> 362 ;
363 [label="county_fips_code_12011.0 <= 0.5\ngini = 0.375\nsamples = 16\nvalue = [4, 12]"] ;
359 -> 363 ;
364 [label="gini = 0.245\nsamples = 14\nvalue = [2, 12]"] ;
363 -> 364 ;
365 [label="gini = 0.0\nsamples = 2\nvalue = [2, 0]"] ;
363 -> 365 ;
366 [label="race_White <= 0.5\ngini = 0.5\nsamples = 196\nvalue = [96, 100]"] ;
352 -> 366 ;
367 [label="county_fips_code_40109.0 <= 0.5\ngini = 0.34\nsamples = 23\nvalue = [18, 5]"] ;
366 -> 367 ;
368 [label="county_fips_code_8059.0 <= 0.5\ngini = 0.298\nsamples = 22\nvalue = [18, 4]"] ;
367 -> 368 ;
369 [label="gini = 0.245\nsamples = 21\nvalue = [18, 3]"] ;
368 -> 369 ;
370 [label="gini = 0.0\nsamples = 1\nvalue = [0, 1]"] ;
368 -> 370 ;
371 [label="gini = 0.0\nsamples = 1\nvalue = [0, 1]"] ;
367 -> 371 ;
372 [label="res_state_NJ <= 0.5\ngini = 0.495\nsamples = 173\nvalue = [78, 95]"] ;
366 -> 372 ;
373 [label="ethnicity_Unknown <= 0.5\ngini = 0.491\nsamples = 166\nvalue = [72, 94]"] ;
372 -> 373 ;
374 [label="gini = 0.483\nsamples = 145\nvalue = [59, 86]"] ;
373 -> 374 ;
375 [label="gini = 0.472\nsamples = 21\nvalue = [13, 8]"] ;
373 -> 375 ;
376 [label="county_fips_code_34031.0 <= 0.5\ngini = 0.245\nsamples = 7\nvalue = [6, 1]"] ;
372 -> 376 ;
377 [label="gini = 0.0\nsamples = 6\nvalue = [6, 0]"] ;
376 -> 377 ;
378 [label="gini = 0.0\nsamples = 1\nvalue = [0, 1]"] ;
376 -> 378 ;
379 [label="res_state_OK <= 0.5\ngini = 0.496\nsamples = 242\nvalue = [110, 132]"] ;
351 -> 379 ;
380 [label="res_state_MD <= 0.5\ngini = 0.492\nsamples = 234\nvalue = [102, 132]"] ;
379 -> 380 ;
381 [label="race_Unknown <= 0.5\ngini = 0.488\nsamples = 229\nvalue = [97, 132]"] ;
380 -> 381 ;
382 [label="res_state_SC <= 0.5\ngini = 0.482\nsamples = 219\nvalue = [89, 130]"] ;
381 -> 382 ;
383 [label="gini = 0.478\nsamples = 213\nvalue = [84, 129]"] ;
382 -> 383 ;
384 [label="gini = 0.278\nsamples = 6\nvalue = [5, 1]"] ;
382 -> 384 ;
385 [label="current_status_Probable Case <= 0.5\ngini = 0.32\nsamples = 10\nvalue = [8, 2]"] ;
381 -> 385 ;
386 [label="gini = 0.0\nsamples = 8\nvalue = [8, 0]"] ;
385 -> 386 ;
387 [label="gini = 0.0\nsamples = 2\nvalue = [0, 2]"] ;
385 -> 387 ;
388 [label="gini = 0.0\nsamples = 5\nvalue = [5, 0]"] ;
380 -> 388 ;
389 [label="gini = 0.0\nsamples = 8\nvalue = [8, 0]"] ;
379 -> 389 ;
390 [label="county_fips_code_25005.0 <= 0.5\ngini = 0.311\nsamples = 57\nvalue = [11, 46]"] ;
350 -> 390 ;
391 [label="county_fips_code_45025.0 <= 0.5\ngini = 0.293\nsamples = 56\nvalue = [10, 46]"] ;
390 -> 391 ;
392 [label="county_fips_code_36071.0 <= 0.5\ngini = 0.274\nsamples = 55\nvalue = [9, 46]"] ;
391 -> 392 ;
393 [label="county_fips_code_39151.0 <= 0.5\ngini = 0.252\nsamples = 54\nvalue = [8, 46]"] ;
392 -> 393 ;
394 [label="county_fips_code_12086.0 <= 0.5\ngini = 0.229\nsamples = 53\nvalue = [7, 46]"] ;
393 -> 394 ;
395 [label="gini = 0.204\nsamples = 52\nvalue = [6, 46]"] ;
394 -> 395 ;
396 [label="gini = 0.0\nsamples = 1\nvalue = [1, 0]"] ;
394 -> 396 ;
397 [label="gini = 0.0\nsamples = 1\nvalue = [1, 0]"] ;
393 -> 397 ;
398 [label="gini = 0.0\nsamples = 1\nvalue = [1, 0]"] ;
392 -> 398 ;
399 [label="gini = 0.0\nsamples = 1\nvalue = [1, 0]"] ;
391 -> 399 ;
400 [label="gini = 0.0\nsamples = 1\nvalue = [1, 0]"] ;
390 -> 400 ;
401 [label="res_state_NJ <= 0.5\ngini = 0.274\nsamples = 110\nvalue = [18, 92]"] ;
349 -> 401 ;
402 [label="county_fips_code_26161.0 <= 0.5\ngini = 0.247\nsamples = 104\nvalue = [15, 89]"] ;
401 -> 402 ;
403 [label="county_fips_code_41051.0 <= 0.5\ngini = 0.235\nsamples = 103\nvalue = [14, 89]"] ;
402 -> 403 ;
404 [label="county_fips_code_12103.0 <= 0.5\ngini = 0.222\nsamples = 102\nvalue = [13, 89]"] ;
403 -> 404 ;
405 [label="county_fips_code_36101.0 <= 0.5\ngini = 0.209\nsamples = 101\nvalue = [12, 89]"] ;
404 -> 405 ;
406 [label="county_fips_code_20173.0 <= 0.5\ngini = 0.196\nsamples = 100\nvalue = [11, 89]"] ;
405 -> 406 ;
407 [label="gini = 0.182\nsamples = 99\nvalue = [10, 89]"] ;
406 -> 407 ;
408 [label="gini = 0.0\nsamples = 1\nvalue = [1, 0]"] ;
406 -> 408 ;
409 [label="gini = 0.0\nsamples = 1\nvalue = [1, 0]"] ;
405 -> 409 ;
410 [label="gini = 0.0\nsamples = 1\nvalue = [1, 0]"] ;
404 -> 410 ;
411 [label="gini = 0.0\nsamples = 1\nvalue = [1, 0]"] ;
403 -> 411 ;
412 [label="gini = 0.0\nsamples = 1\nvalue = [1, 0]"] ;
402 -> 412 ;
413 [label="sex_Female <= 0.5\ngini = 0.5\nsamples = 6\nvalue = [3, 3]"] ;
401 -> 413 ;
414 [label="gini = 0.0\nsamples = 2\nvalue = [2, 0]"] ;
413 -> 414 ;
415 [label="county_fips_code_34013.0 <= 0.5\ngini = 0.375\nsamples = 4\nvalue = [1, 3]"] ;
413 -> 415 ;
416 [label="gini = 0.0\nsamples = 3\nvalue = [0, 3]"] ;
415 -> 416 ;
417 [label="gini = 0.0\nsamples = 1\nvalue = [1, 0]"] ;
415 -> 417 ;
418 [label="gini = 0.0\nsamples = 126\nvalue = [0, 126]"] ;
348 -> 418 ;
}